{"Layers":[{"Bias":[[-0.009711624429282008,-0.0011901586544772738],[-0.002037917967504242,-0.0009573277534691681],[0.004087684977707084,0.0004934628454356818],[0.0035250669129930157,-0.007729582158079593],[-0.0012243811138791857,0.003238480495334664],[-0.005977698982985183,0.005689770481294629],[0.0017358615807126052,0.005323721828946115],[-0.004904182916163823,-0.006155279197453162],[8.439225707446195e-05,-0.0011566807493469905],[-0.0045474531404831224,-0.0005002232734694356],[0.003737161543175883,0.00697174064649116],[0.002177071557243751,0.0014961968272192176],[0.004641117387735375,0.006028342689053323],[0.005242896217290049,0.000652499495378529],[-0.0027286396662388832,-0.0028297912362248217],[-0.0035393045738897067,0.0013301019632918263],[0.003221941098028337,0.002304053281135567],[-0.0021881101673938263,0.0022011090365477467],[-0.001454656335707538,0.00634423756498061],[0.0008417154030297743,-0.0019452763324217485],[0.008648966819642072,0.0008224403108513501],[-0.004781735886501859,0.0010695845474581432],[0.0014001199125755388,-0.0012130885323215967],[-0.005382312349561152,0.0002855713226368394],[-0.004402503228920653,0.009999306708776603],[0.0006503912707554063,-0.01441251491941181],[0.000618359350816915,0.004514377133542342],[-0.002082086127643716,-0.0009091534385757342],[-0.00024255321902248375,-0.011372486366547405],[0.005230860745650507,-0.0016475181266328307],[3.4537428524432096e-05,0.005985418521497125],[0.00021614011087942205,-0.003173360498970699],[0.0012434207632868927,-0.0009623191070620068],[-0.007322094832194087,0.008075507105779504],[-0.0017316121700618743,0.0023235495038126767],[2.2885139488375327e-05,-0.005039678792977862],[-0.0014830771527043353,0.010430516202438683],[-0.0015364819529828176,0.010411917046618984],[0.00043551807779881093,-0.012370572253393974],[-0.0077953037664444,-0.011554055298630397],[-0.002057443794272637,0.0032629990496764417],[-0.0003166909854090379,0.0027930067980853207],[0.006369120598213782,0.0029756478182677505],[-0.005240573481867869,-0.0004773490303648315]],"Inputs":22,"Name":"FullyConnected","Outputs":44,"UseBias":true,"Weight":[[[0.002662940581261245,0.20979964163592596],[0.031078018138869505,-0.0570812975049774],[-0.013142997267379932,-0.015094290539856087],[0.024243801416827422,0.2264609468609381],[-0.0749204944964995,0.058457387520928585],[-0.0028630452926286503,-0.04306811670345994],[-0.026025545104844748,0.11423028367102064],[0.004398778288566822,-0.05410852107938998],[-0.04570657180896512,-0.1760606828794396],[-0.016931075688646043,-0.05349193660610103],[0.023891147961707472,-0.01415197811077732],[-0.011065776070983135,0.02159548052678123],[0.055786759639775724,-0.2646112802335525],[-0.03931709388822191,0.19480105049603602],[0.01875705317073511,-0.03608344275262628],[-0.05198799628933191,0.049125894817474036],[0.026074370109475945,-0.009326529119727821],[-0.008823702272966751,-0.040460211540867645],[0.03395111944568409,-0.12171307094442639],[-0.037236552914559025,-0.14703517229226773],[-0.010664890351078087,-0.04823290559261491],[0.13158103568744026,0.1044421406743478],[-0.018995472749387975,0.0715772260855828],[0.008952378216860405,-0.05044340941341243],[-0.00113974444531947,-0.08320162769535798],[-0.020706634803267794,0.14201844324227952],[0.37738020601966077,-0.11535273944891132],[-0.012935038905855841,0.06253296560993843],[-0.008740415724428583,-0.055094202755214906],[0.18842915775007163,-0.018917421225141805],[0.011096614955061215,-0.1319702155604903],[-0.03664700814204089,-0.09653456382650263],[-0.12169932756667395,-0.048216137828721195],[0.0009991229679842657,0.11760365206396982],[-0.020822443737711492,0.1991634392056576],[0.003761098959269915,-0.12439326731220059],[-0.029654491098629006,0.20593613209484107],[-0.016716596441915862,-0.038432631701773176],[0.010372926553460253,-0.11219415741629607],[-0.003461481953637987,-0.12338730950731441],[-0.006105281324517216,0.13684966497254197],[-0.007901354629831154,0.023598294457318068],[-0.0009462223257642643,0.03324538245033974],[0.022680288101853383,-0.054329442489471455]],[[0.001274894830494622,0.11465980242953609],[-0.018067327205542473,-0.04957266280228554],[0.009002503763019684,0.0034478331862802577],[0.0588795287888011,0.1594259683832473],[0.027618410759454516,0.07764457629307031],[-0.00758943547382578,-0.029781349198938375],[-0.0008047583938367536,0.14406551274096946],[-0.00035623719062132073,-0.04849373943345996],[0.045230892847992345,-0.20195637334486388],[0.00757981607431869,-0.026638580477645633],[0.009052882701106534,-0.003091774765304524],[0.01419248937868606,0.04459114750437227],[0.11551412178955725,-0.31817834502906917],[0.054679173613510434,0.19762116477063515],[0.22455674934920591,-0.033302946688251955],[0.04902654043820713,0.10168198254320991],[0.07374271312969763,-0.010475950330712082],[-0.04696502789542675,0.056261870550029965],[0.08008115960781738,0.01997078068553061],[0.014202664496401486,-0.1269164161100901],[-0.008685951802834544,0.01517960331818874],[-0.06000841872646133,-0.0789169517983967],[-0.000493235598553304,0.07756759116319042],[0.015245781813119088,-0.029011886947178368],[0.0005924298420561941,-0.08892481301990154],[0.055969049226854244,0.32518522628049745],[-0.2742555884414355,0.05433691328043037],[0.000481151084289546,0.06879587146172184],[-0.016776303843183706,-0.051248365041696206],[0.00433880421177144,0.29489472824347135],[0.019854304889560866,-0.056562557067131695],[-0.019095468144776053,-0.10873200306035853],[-0.008282368800992344,0.008823394374301002],[0.014963901872252232,0.04975301402611078],[0.022278930681558253,0.22812929768158544],[0.06884955016933207,-0.0876155637879906],[0.010538518503571827,0.19126362924023144],[0.005994671077940525,-0.0193897568704606],[0.06674331751261876,-0.07756087718986747],[0.005359433573560992,-0.11555796995649772],[-0.0006597921529390855,0.12137679919098185],[-0.022439835702244497,0.02165753993007226],[-0.008957390514610109,0.03847700940465176],[-0.0059884940429664685,-0.03985271662160535]],[[0.005185657120848866,0.11037994647067731],[0.02739147135104686,-0.02035943133916199],[0.008616471625955966,-0.08869397620312124],[-0.05198537723286094,0.1305534291103408],[-0.06254460417262973,-0.008103465171018866],[0.004542092145467061,0.0009634739989841643],[-0.009584194039106536,0.21684466542476022],[0.02397256485593582,-0.0373955629883553],[-0.006747347951875838,-0.18435855666743356],[0.07398929686942303,0.10841398453074991],[0.0014938658541282168,-0.012723384669925397],[-0.004715960516677902,0.05254798597737707],[-0.0226618386219285,-0.3086753630167303],[0.10240317494475659,0.02665241522498253],[-0.4302747125141515,0.0706769989947528],[-0.012695793090790808,0.07030007850109385],[0.0595756813051293,-0.007899100762922912],[0.004073230017060134,0.07974352783040897],[0.014077838565745262,0.17118128013241252],[-0.030673749165333004,-0.08101087162224352],[0.002417128300480069,0.038231498184566205],[-0.044830329234295,-0.09393076814980375],[-0.010926405686228479,0.06708435953146195],[0.016222758155330533,-0.0023337051746401697],[0.013010013422099091,-0.005297641904314343],[-0.005211810197751025,0.2532675219618184],[0.08011088298753029,0.04115167949784945],[-0.004395127766511302,0.07367646763606796],[-0.033445270582980906,-0.11422498060461023],[-0.03100208858321599,0.23397900300106028],[-0.017299350064791847,0.0017670328425664263],[-0.005687584464383186,-0.11106338791870313],[-0.025762443768989497,0.042938563729187335],[-0.0074832218018809,0.019139523606858194],[-0.034586050587012813,0.18349557892954732],[0.09838899941776014,0.048378406847075214],[-0.010215458615361276,0.013610038866459687],[-0.013177364233534236,-0.04013490280991279],[0.0031517795001070707,-0.012374317387916538],[0.010662742815417979,-0.10482564753874332],[-0.014695995069989178,0.10423488124697099],[0.0067709519376065105,0.058315680030774905],[-0.020215858020720213,0.059908278256252764],[-0.00973128617025354,0.01878603746182901]],[[-0.017529087117026915,0.0730781201638123],[-0.02928334315245997,-0.01885338872669637],[0.015045279841168394,-0.1296442613820707],[0.04923363792467506,0.18398067092073156],[0.010249744450203534,0.00687496686135069],[-0.00010792626569727532,-0.008849688370665736],[0.01525403055051263,0.22231257891134587],[0.006887042855556378,-0.025849574447156347],[-0.01800850900477955,-0.1195519219332187],[0.0007105321831415235,0.17970708325013152],[-0.021277396125472962,-0.002449257425539446],[0.0042215775650657605,0.04847011957243155],[0.042325786933643535,-0.2860979459817883],[-0.06335980475528581,-0.10637076977433386],[0.2963923023537541,0.05075354170825053],[-0.06502816336370905,0.0037623080435673965],[0.09906685658394718,0.00253516075798653],[0.0020043553288645855,0.11702574871939003],[-0.014926161031311894,0.21815608950733453],[-0.010098786545116924,-0.09411840262269029],[0.005485175315321829,0.10647476632510895],[0.019250735741247946,-0.07059051107450101],[0.00014465582562757167,0.07444621883891457],[0.0019040412890576378,-0.015838604274498104],[0.008215744152485788,0.018473113300396925],[-0.01405522056876328,0.12287894114758931],[0.017725000309055015,6.752948862100258e-05],[0.009840895460556854,0.09630200997482415],[-0.02780308505445775,-0.15157149594502617],[0.014438607510311419,0.16928541694260274],[0.026621368886406583,0.08311494609105399],[-0.013454834906636171,-0.08902176751769919],[0.013365398719613791,0.04195161655463007],[-0.008478014091417203,-0.041656777421050284],[0.013954587421653997,0.10481575241167151],[-0.016254786731687475,0.21757445426216016],[0.012332953469056045,-0.03781775370651433],[0.02305370811617336,-0.08875201554189743],[0.016257120096349047,-0.003652287930150264],[0.004368466718157287,-0.08616919430693502],[0.018178217488397028,0.054467941323192076],[-0.019604320532634115,0.06851767148535623],[0.0010498664783035693,0.06616220229874],[-0.009776106736049586,0.03804307093536834]],[[0.004687760896532342,0.13385518556421647],[0.01045619072204477,-0.05402419688975493],[-0.01754425693316744,-0.2325954676174297],[0.005944148280404456,0.1506490215249177],[-0.007747247869657262,0.056390378529749104],[-0.010090656509506867,0.024236892733505013],[-0.014714037257510535,0.23511431425428383],[0.0016312423825380405,-0.018679500735987224],[0.028390779476198093,0.01601235871473135],[0.07769738580831562,0.07418873048005614],[0.00421497586506353,-0.01882515779517736],[-0.017542226222163542,0.04586393852280507],[0.015004025165757875,-0.17362510462224737],[-0.08541119464342528,-0.17831978898093367],[-0.18015760475326564,0.04949404519708539],[0.061602536741874825,-0.2510908324133766],[0.24334304458800873,-0.008863152301417333],[-0.00027996581162323923,0.12141971164304043],[-0.025913749135479697,0.09647573831573182],[-0.035933784860795105,-0.17248410170291417],[0.013539329251016885,0.12752584091258515],[-0.059977409923772984,-0.08865024634518014],[-0.025537058989645475,0.07412084061205869],[-0.00863831012425651,-0.009750435128595305],[-0.00043715127285572607,0.09845215789715692],[-0.0019578794709667275,0.036431072982288176],[0.0048901674457592775,-0.0006136828650504279],[-0.013805890934355051,0.07275731997709274],[-0.024108552183308957,-0.24170618033625313],[-0.05786272216646536,0.08764944784549497],[0.00919847887715901,0.10721786473956878],[0.009622204892884782,-0.051174990305009334],[-0.0413731760530232,0.03318304311345574],[-0.009769471399233811,-0.0442305789933774],[0.038680587943637205,0.0004179374693443509],[-0.0871431850659077,0.6067188047573917],[-0.02026629620197458,-0.15059310772690562],[-0.007773827423573036,-0.05895735242185777],[0.03388336965606231,0.024437489710014013],[-0.0005853252444498265,-0.06404806839602156],[-0.022385814450770248,0.052894237408346555],[0.0208282789167311,0.050836266847990946],[-0.006155448586206586,0.06546002376684268],[-0.011941772368402308,0.03494783991330892]],[[-0.018768195828727637,0.0944304488814033],[-0.027528344170621413,-0.11029111138464966],[0.038561683375289625,-0.22874609557209566],[0.030471537403598214,0.09428792454966668],[0.008184853229768734,0.056998379761103536],[0.009821164501209581,0.02227772646005892],[0.006762172091860685,0.16149006959335535],[-0.0063636879180092275,-0.04123280292097352],[0.019676356281298105,0.10580846830991436],[0.06810806250308715,-0.08756179544163899],[-0.008467394256723796,-0.03447403412177485],[0.001264161591931859,0.04084754563948565],[0.02450175066004655,-0.0869773831712606],[0.01307110064990363,-0.2136926287163804],[0.00233266415332279,-0.047003026121977896],[-0.07449963931236966,-0.057161044319874746],[-0.5070183089387766,-0.07504396463336294],[-0.015185431838292057,0.10920732728469021],[-0.024691136734088733,0.0129596200502202],[0.0006702018568132735,-0.1750149579344776],[0.0035779533121139103,0.17983240925572758],[0.028882457484523467,-0.10689891067096208],[0.006974141871982136,0.0781919100278172],[0.0014055695594326983,-0.017837660340630473],[-0.010102957403677719,0.12466437219457277],[-0.00010661554980942716,-0.07612479525456589],[-0.015439114645815396,-0.034507308091978516],[-0.00785801423677721,-0.001698355899679441],[-0.026877387736563372,0.013518915395915484],[0.030264475333853364,0.08013671080737136],[0.011244869718540766,0.10299620193237007],[-0.016864277455810393,-0.008520751886717763],[0.007572611196964862,-0.0007548134150454531],[-0.005232876544493662,-0.10620622971326812],[0.006663795270819459,-0.13017344588942958],[0.0057301691528487565,0.20099124584138525],[0.024787774727054384,-0.06369486837460836],[0.00977823466600393,-0.04198612197846523],[-0.010206066757619372,0.06670340281444148],[0.004752276320680867,-0.06723986921871514],[-0.00022761154338520848,0.052318726306362535],[0.016086394119953547,0.017424966416403107],[0.011273984756817738,0.05382366299898276],[-0.011785498972145638,-0.010905645334681437]],[[0.0006807573192385676,0.057017542366911235],[0.044429920128702845,-0.1609802726642182],[0.016795603094130356,-0.23566862036807087],[0.020122295652664796,0.015061439978305738],[-0.03485040533711994,0.026584304481005905],[0.02350003163717835,0.035443575834083106],[-0.006327658981016395,0.14222850657043684],[-0.004056467724423176,-0.05328134579923099],[-0.02408781841944684,0.1504821919320308],[-0.07674759831674381,-0.15588474575036843],[0.0016557839521662643,-0.05680995724363069],[-0.007490368363078803,0.03512515578826783],[-0.00818779832171659,-0.024739176045803685],[-0.012532808989605904,-0.26207086453213263],[-0.01669349509061573,-0.07580399170951942],[0.002188317236747486,0.07764056866288106],[0.39583264513510846,-0.04378719215176812],[0.0027037106918843335,0.06888482664452676],[0.018727490792425843,-0.012445039749571837],[-0.08430897819117779,-0.16295561244880177],[0.01223771284767005,0.20393520431289344],[-0.004474744583143577,-0.0954825388716123],[0.0033788007785071988,0.03611340668102464],[0.011640115697383373,0.0008950636876546444],[-0.002552643106610524,0.19226675145828437],[-0.00863878064508297,-0.07547728084144299],[0.010594925050976164,-0.025715456632519697],[0.027071747790226256,-0.11199841174994146],[0.06582169680584693,-0.016619583499408192],[-0.0047587743331680855,0.07087069480439336],[0.03516779817407403,0.05798031355123182],[-0.015547620047492466,-0.013172230795558446],[-0.012005055059965585,-0.012867959671674456],[0.02468976613120586,-0.1432453604211357],[-0.019072334902565078,-0.19321502048019448],[-0.015488998311285845,0.11877417824740089],[-0.016930719042306926,0.020922261977676448],[-0.02568359783289004,0.017668095514065705],[-0.011902637017057259,0.1057227877708239],[-0.0039001582747424696,-0.056227993386472566],[-0.0007195093216729501,0.05618727242751762],[0.16319364513826576,-0.013099855281647204],[0.006567669536103238,0.06232830525466888],[-0.0029894577547081996,-0.044249357983375176]],[[-0.014460387143698792,-0.031191140130762917],[-0.051829837884131355,-0.1652606455631218],[0.0248621930266714,-0.12737798130757713],[0.017864179385222157,-0.04422802383398201],[0.02391789368574859,-0.040045682248893356],[0.01844054767523319,0.053580103174064246],[-0.01393739711330174,0.07374336742009337],[-0.007897197288020524,-0.08290342521441546],[0.01978957593963652,0.17365786980453451],[0.13459677576997178,-0.14259995382203214],[-0.013678955342323667,-0.06318291738742023],[0.01806025140220657,0.02542231975683061],[0.017401689394271426,-0.008473122837900358],[0.014403292329849887,-0.2506976783996938],[0.026422742627192033,-0.07834927995586263],[0.06942577822851279,0.1824244097543569],[-0.20995074926088872,-0.06029597922209171],[-0.003801361206469877,0.05093790011077419],[-0.014861201176589614,-0.013039081263340467],[-0.07730822947487184,-0.13124029476750476],[0.019939027550654746,0.30609520382830235],[-0.0016733886608553126,-0.04635464634274122],[-0.05886267140627652,-0.03919577429796538],[0.0364738813105208,0.005070477922391252],[-0.006553364855893244,0.2110710202791783],[-0.011864913812081695,-0.11602813744981365],[0.006031555221761346,-0.03284229040374136],[0.1393674559363515,-0.26376435849075763],[0.07915456714038518,0.30351800193746936],[0.007996921084677222,0.08753189668660208],[0.01403671056872829,0.05159006843100577],[-0.0002586281094191619,0.00865964566664351],[0.009517489227573719,-0.006658005928369295],[0.007744871090947416,-0.17669477745739218],[0.024659706188009334,-0.2356093102689239],[-0.0067050666822191934,0.03207282486527049],[-0.0037505324870260957,0.060981167299170816],[0.005067915471294575,-0.05529797285962142],[0.005441388301913573,0.14170257115979468],[-0.006873184385633282,-0.06704994273471404],[0.0047501462200118545,0.08516817136617595],[-0.12231582312787816,-0.053773824738760134],[0.014911970176039126,0.05110850271635976],[0.01305191090912624,-0.07371514268234651]],[[0.037134632861278695,-0.06873167883559084],[-0.14777883308710227,-0.05611794127021807],[-0.02958461375977633,-0.08432374376620111],[-0.002438138649448194,-0.05654465032878035],[0.0053973630039874446,0.01621831772447556],[-0.11229773319083376,0.13950066998769997],[0.004472052829354793,0.021603089286235916],[0.02577654320589814,-0.06786384052993176],[0.0019330458973436427,0.13166776858548446],[-0.09990099182827454,0.013967460462590989],[0.009154568162447089,-0.07248170536581704],[0.007639838318724591,0.013617018919722253],[-0.03123109038688334,0.033218746496275015],[0.004644506949803427,-0.15013930901784503],[-0.004882230283138342,-0.04719017130332317],[-0.002197679214809202,0.0049820480756060945],[-0.10529202906564859,0.018700049234407736],[0.01646043499668509,0.03348842617871524],[-0.00386546649489207,-0.03778379723134951],[0.14900883139471383,0.17627906208552377],[0.0029197158345911746,0.24419244553092942],[-0.013419263669090482,-0.030993703669557792],[-0.04333389997500208,-0.1313563374699023],[0.006626606582107777,0.08860576739423871],[-0.0017231099263211687,0.2120985004008846],[0.025090642083499624,-0.1150813133074144],[-1.1183439368253265e-05,-0.020439230141355156],[-0.062087838675824326,-0.30003709383080174],[-5.144364183141113e-05,0.24175546878299503],[-0.01281799783277061,0.06581375927809588],[0.028219785437283228,0.022788795757925702],[0.0001561815636787439,0.017471187333789932],[-0.013588369042694724,-0.0009162282195047102],[0.01924546418207345,-0.11135215643851011],[-0.025250390201676243,-0.14506179910858874],[-0.02519877340597257,0.009366524817396638],[-0.008313397516239605,0.12973130063962543],[-0.015145817681515395,-0.056067183018183996],[-0.023025521710460753,0.14021657014554753],[-0.020217058023821732,-0.08426690792763372],[-0.03691698309228029,0.08186219047773047],[0.40316085809199653,-0.08211713642102579],[0.01925901721252304,0.0425195829601344],[0.03005316187464833,-0.028487935360644194]],[[0.012043632739337522,-0.1390861893414337],[0.037237163675289044,0.1975166497982034],[-0.0009927448777666552,0.03945274429619525],[0.03163966008178801,-0.032915066637390494],[-0.00762859145287548,0.09877866663909592],[0.21344921313120874,0.2194353236266293],[-0.014162765793009392,-0.05172865509092387],[-0.05280934456983274,0.03529837353468128],[0.03594794512916693,0.04337683488254294],[-0.033081412662976116,0.0427444776904839],[-0.02108314342797879,-0.09261121337464207],[0.04370188575476094,0.01190748389034686],[-0.011952183708765083,0.05667122657050536],[-0.008211887837278413,-0.04695478678978878],[-0.0031600101228589092,-0.031019244650546455],[0.030548720773594943,-0.0812929558137356],[-0.034137285860578105,0.03142549686312857],[-0.01491147657763171,0.012252400580226287],[-0.011961099767120035,-0.07283643315932464],[0.06791905989923781,0.22877767862867637],[0.06909316979599225,0.28344120618673274],[0.057692188902190876,-0.04144675724781878],[0.16331077901880345,-0.23485447356722075],[-0.011415766956523285,0.13407373551713594],[-0.0012009628822316782,0.1429404976127145],[0.022708489142797727,-0.1375528699629273],[-0.009934239970830682,-0.016035352651401078],[0.13719799138454633,-0.23686003421931345],[0.00917036624929478,0.2198146604073493],[0.0013400294758635642,0.0179865484601273],[-0.005462124217045112,0.016810328092121175],[0.0007399274760562444,0.04260148375914092],[0.02084123555939051,0.0031567368161501182],[0.02143474327392631,-0.1633568652241134],[0.002565070113782578,-0.029059075627576283],[-0.0008735928740827588,-0.008339165648973263],[0.005377247851653889,0.10553958677763857],[-0.02574619401006962,-0.04419732650652616],[-0.021035658554499684,0.10855537386322309],[0.031650677809391146,-0.0796823247605967],[-0.02478736512769176,-0.0009324979188309853],[-0.2804442256065347,-0.0194818182886003],[0.009513214831572362,0.02694431283436098],[-0.09725774507646252,0.07352593913486483]],[[0.025721999816667132,-0.114429201883185],[0.09028396801612645,0.2750044438704275],[-0.032411901996839236,0.011524637776231904],[0.015866249531778526,-0.032270902750051934],[-0.04756252083152053,0.10723450554218798],[-0.2541226794295,0.28269533658117474],[-0.039836292077256766,-0.07549034990870145],[-0.18398185086235225,0.0796005631321808],[-0.017315254630222012,0.015245631445910237],[-0.038889695537541534,0.04700316466804251],[-0.00025018788939146816,-0.070226638268566],[0.02102294566146423,0.010666264564177502],[-0.009352910468911688,0.09867792375408893],[-0.014793972799246035,0.000709115463565153],[-0.002437869684470821,-0.012978696294602046],[0.00975071561431873,-0.07875458006403468],[-0.0543866509766333,0.027075917409312207],[-0.003547164968282681,-0.04778724302399997],[-0.010776043525835964,-0.10851759067573599],[-0.024776695750170753,0.23221038411771444],[0.10047051292104874,0.055237049807194696],[-0.0033032312354385096,-0.09072161734210686],[-0.20622061459550173,-0.11994771878163706],[-0.010235780763047582,0.1262567652731167],[-0.009684823046788157,0.1418783403441582],[-0.016344140590481705,-0.1603027578844276],[-0.018709354040035334,-0.00881400999171968],[0.008946410654354055,-0.208250714262853],[-0.001261906153846835,0.13660964649423313],[-0.016193926924297317,-0.02172745197255205],[-0.013310825676197277,-0.03565560381018068],[0.005203275763175892,0.04782277317388723],[-0.0037986096337399326,0.0032662491366731244],[0.01866329677249573,-0.23125572133605016],[-0.00505446126712333,0.014023991396307608],[-0.008199181333703558,-0.023270839838135344],[-7.21388903169118e-05,0.06729141057906048],[0.04247983578633599,0.20113721984443508],[-0.02354599124005921,0.12051695901270885],[-0.016914535313694194,-0.11433652328513029],[0.08489106507564695,-0.1327550192936588],[0.04025468675893015,0.058409860031344296],[0.001021395768383615,0.02049107750675677],[0.020712160319662987,0.21424822522580908]],[[0.016819359778904447,-0.1464846926161328],[0.006802634617086663,0.22761508431409033],[-0.0738861976841588,0.14044076421675558],[0.019692351908123146,-0.03932446129149846],[-0.008615318160357287,0.030352796482719227],[0.05028203560568024,0.09662521131009008],[-0.0069239292372785975,-0.06486209038519729],[0.363378380065391,0.20104746487188943],[0.006409135921421049,-0.010403030340714551],[-0.011977704624848283,-0.010626530092785878],[-0.02291996887220445,0.0019179306110878893],[0.0884648670555278,-0.015870301680936325],[-0.0028614051024812084,0.1087397848561577],[-0.006033429386392969,-0.03175378495606548],[0.007086707731876385,-0.004666347547201336],[0.022809416605093186,-0.06543996084875449],[-0.01244823333234137,0.00810984351708078],[-0.011888751171806171,-0.051445907859898464],[-0.021489336377198423,-0.1106213874866809],[0.048145156622642765,0.22968674644678194],[-0.10509198019861471,-0.02114212063026881],[0.03210733903743315,-0.086473450350485],[0.17804948816095534,-0.0834658293341625],[-0.01801986158017865,-0.01072615425309767],[-0.02014971604669292,0.1348871865741779],[0.008854886038556975,-0.13003164332027867],[-0.015814583109342056,-0.0010747529691333053],[-0.12164358676665175,0.08769089415739255],[-0.0014184391833523724,0.13405688570746735],[0.011582845531043126,-0.026344137393343195],[0.000889997847564442,-0.06091880635543434],[0.007537134978916012,0.07345867629833494],[0.013377282148654232,0.008062041419293878],[-0.025544214786332443,-0.26708206896032727],[0.010590273348550804,0.041199965679003095],[0.0020133786547407873,-0.03500604844976336],[0.0029652831578758487,0.03611741410803806],[0.02939349694793211,0.22112381221986466],[-0.0006937774737916468,0.06696682619018006],[-0.06452766192280347,-0.03396338651890443],[0.08398637954371073,-0.2714692481235637],[-0.1184502197009139,0.005883861407111853],[-0.001098185912154672,0.025195781863611662],[-0.04269104134119014,0.16356704730725763]],[[0.02348564641421683,-0.1313460994850577],[0.050705318945433536,0.19359336414308606],[-0.02445345755306049,0.1937090862551197],[-0.007143389369153907,-0.03678990121226658],[-0.01653059384420091,-0.06783132716679525],[0.0784001903973171,0.03552764184673516],[0.02974198661458008,-0.043567284173249385],[-0.353700184722907,0.21541634703085083],[-0.022351280685886838,0.007381994641411963],[-0.04808373930970987,-0.031227377222469776],[-0.05419046925287783,0.05757748746982952],[-0.10108159406960353,-0.08344574496634462],[-0.01776122249040661,0.12604373391527987],[-0.00358615654273373,-0.09956734358155828],[0.011600639364678601,-0.011910924885759575],[0.0037421052298401017,-0.04074940354720108],[-0.01808159427932609,0.00045470014825568545],[0.012374220101709656,-0.083080237891947],[-0.015537648390522886,-0.08946446031739717],[-0.023512574919806063,0.15496103072872433],[-0.09139815618722034,-0.1986498203785081],[0.0005659541607037636,-0.02978647607210772],[-0.021787707384464217,-0.15603156940821702],[0.06516104602609256,-0.10285859103245504],[-0.004926085727273193,0.18843143078501862],[0.02065875292221993,-0.05955939486074912],[0.0026775060032169125,-0.018854786599364785],[-0.030126631661149074,0.12764823178874649],[0.009125214662401787,0.10185534746308855],[-0.005245986998184145,-0.020874222127075532],[0.02102977812093233,-0.07412709076454146],[-0.004576859621762011,0.08014147899169025],[-0.0025422949121497273,0.02245278347208951],[0.008751437739703353,-0.19818637763382543],[-0.017019404138142392,0.007163970111848942],[-5.7226227655501286e-05,-0.02869718483260324],[0.026365940923876365,0.024712809775041967],[-0.001859054594195989,0.2081231303374997],[0.005468247359162743,0.034241603505348515],[-0.015030349466780557,0.16412503709688997],[-0.10772300586987514,-0.24721367102896832],[-0.028575777603785768,0.021356378931861833],[-0.014122628244403523,0.03518370379094091],[0.05279558034985977,0.011607792684833116]],[[0.01280578950589122,-0.15715224575026823],[-0.014935353435053193,0.10452133286216343],[0.03772310876624957,0.19274488340830362],[0.0004085403813398054,-0.04676200087302156],[0.028349492488210015,-0.09649881855318095],[-0.01949561660273944,-0.10495720778135971],[-0.030767077380555105,-0.09870686919384918],[0.14865101103977113,0.11462956018719694],[0.006971344112141666,0.027554068428352035],[-0.009207521614170305,-0.02226074336871421],[-0.06454931860005848,0.29152582734505383],[0.2618699659929499,-0.06488057488321682],[-0.0029976126619879447,0.13270719182995783],[0.012722996853120292,-0.03263988711671292],[0.016554911113965527,-0.008325406033039367],[0.01167114137311251,-0.0458692740809016],[0.00839590337712264,0.013852577024611719],[-0.011593187845264632,-0.07750875320476334],[0.0018371283998895797,-0.040413047140617414],[0.006098983521386148,0.15002334753762672],[0.025610369441186116,-0.19066739282056558],[0.00951133263085353,0.05147000104029593],[0.008833593585658318,-0.16081157737156743],[-0.09044752664018187,-0.04467716597046726],[0.0004763126937840183,0.14103019289538107],[-0.002037097897936184,-0.0031417672859137243],[0.004477498330914214,-0.011237188810728781],[-1.1133310056968574e-05,0.14042215129989957],[-0.009042125192177444,0.0847826238996596],[0.008598918481587697,-0.007532709349998398],[-0.0033772380914760185,0.0026585830753964573],[0.02778832680509447,0.09343281969591277],[0.0019401801273248877,0.02437981698327569],[-0.060041711661806815,-0.20598634298438698],[0.02714104357537806,0.012837097198829667],[-0.002669709971640925,-0.03804716008922497],[-0.008804432223853478,-0.046718688028232404],[0.0068195188553275285,0.10741001955916309],[0.021684003366134345,-0.0758583857359707],[0.14695375989815343,0.22771314849582777],[0.10325959559423335,-0.29754725623797723],[-0.054954120667494125,0.005974844049069237],[0.0337248629125886,0.015510449191371078],[0.05473805414862995,-0.14453747601039058]],[[0.014112350683699334,-0.17764851878097584],[-0.010109174927566173,0.028600938733665184],[-0.005878865680315718,0.06091799310062432],[-0.015605665399664497,-0.07097116848085637],[0.009215090760697682,-0.037149369148304336],[-0.007662421529311222,-0.12780645004467422],[-0.05887769590828884,-0.1909260902235447],[0.05581277117902809,0.02829191409943103],[-0.010241867403038058,0.03077550550126283],[-0.006798326162286137,0.004728283036885886],[0.10839744072350815,0.26431056940096886],[-0.3346594088635286,0.002705523868582919],[-0.00642081920306559,0.15409139339493405],[-0.0111285450388816,0.018105666198143668],[0.02496641352055527,-0.01279845974967883],[-0.012239059112946829,-0.031912792279546534],[-0.011012023908266097,0.01826343318064868],[0.04247459714258252,-0.15619722207640574],[0.048615376326929936,0.006893321251352653],[-0.019777993461300977,0.08908264083318185],[-0.0073311671211742325,-0.24103423317768455],[-0.03492052709243546,0.08057773789457569],[0.04293113721693181,-0.036009287413963115],[0.04348937952925917,0.20288351958081297],[-0.03583987780728383,0.15511958602590406],[0.0021373260639992405,0.02934605252355103],[-0.008821024074073397,0.010153562964365643],[-0.021099188923238574,0.11423700106944315],[-0.008464474993978986,0.03398229617536577],[-0.01318197948277908,-0.015346379834512001],[-0.036405524199893735,0.050930465370983155],[0.019606507247660897,0.08050999681778992],[-0.004109960190770452,0.006516675531170233],[-0.044880988280180986,0.05901153225796469],[-0.01839504492061669,-0.014817525188570008],[-0.007637200183337812,-0.06863272116482519],[-0.017456240078838926,-0.11794420683658474],[-0.02599057938813907,0.06543060773225867],[0.012665829586440365,-0.09231521212919458],[-0.1336833143402431,0.28099283330166175],[-0.05492311026397873,-0.21231431524077982],[-0.024786920422815654,0.0008373848132665956],[-0.02107455562433365,-0.062157765814310706],[0.009984864229255786,-0.1779082619454006]],[[-0.015463462513846098,-0.19754429910572324],[-0.009599805154757148,-0.03312262575361947],[-0.005345760782605936,-0.04341688330626944],[-0.010373764851792765,-0.09183623856690265],[0.04038662497739262,0.07412008165848775],[0.01735339637946087,-0.14769715491356736],[0.10093945966285475,-0.27230612938442894],[0.007568417896307955,0.00508366032280304],[0.029505445904059544,0.015474438345143301],[-0.0027165147888217316,0.037147689805698096],[0.02050606341789724,0.11600583626683085],[0.1456657656225003,0.04151657523328388],[0.014091382119493994,0.13442673783001904],[-0.0038879580062654495,0.059111217552490644],[0.005696206030802898,0.004700877131971642],[0.012335331808878471,-0.042977822619677544],[-0.0011989781807549402,0.013302145316948137],[-0.02646820246992985,-0.2046525112263071],[0.00188167779211066,0.09180452184940802],[0.015097693811483306,0.06264040376326535],[0.004420679764274836,-0.1835645035668331],[0.014524456377825384,0.09047953086550027],[0.005209630422877755,0.002602015387365829],[-0.05253533533634876,0.1925287151705176],[-0.03170924802146029,-0.11004861927527174],[0.024914394343114443,0.0034662159735371983],[0.009968834601566248,0.03142353881356407],[-0.01927297963291682,0.07126627654612068],[-0.011969208974024668,0.03971412721303643],[0.013854982125673352,-0.0009853296269017645],[0.009425560845113565,0.010654474982721741],[0.012048450955282076,0.048476055838411525],[0.060799683150687095,-0.025712240542609354],[0.02770914985420941,0.06578733545467041],[-0.0018351139649764583,-0.04822919678033099],[-0.0007229781360672738,-0.0912763043413191],[0.013948883954939813,-0.18735930357905578],[0.018973166282354202,0.0132464734968789],[0.04833137475355022,-0.18759849206889576],[0.12833612634285377,0.2940854277843181],[-0.04916313528616461,-0.18114960941836494],[-0.010771769020114803,-0.013164547810452495],[-0.22342426902138962,-0.16349543216146606],[0.10013547981597133,-0.18410739239037538]],[[0.0007392620314929258,-0.1381155152018198],[0.04445638510954869,-0.020114820626547084],[-0.013457332492311187,0.010814426651920976],[-0.011963979742027338,-0.1367695811205878],[0.0035981068454434997,0.05775391517592483],[-0.006101314870915761,-0.10371893254301591],[-0.09931290072569955,-0.22007615175713335],[0.005047040587889041,0.0016544512276495823],[-0.00047189040505109876,0.07206697746083479],[-0.00735359761289283,0.03979617840189776],[0.017359499696980522,0.013592144046789078],[-0.150172895141213,-0.06612801337650784],[-0.012693410638671557,0.14280557802631577],[0.010785265326835543,0.044599121497929474],[0.0053480942850094365,0.018590724132854668],[-0.008913406219848038,-0.014722699504077837],[-0.013632980451682469,0.0063819673619737215],[0.09254569510845319,-0.17615178618298605],[0.03313889970853792,0.14358083581873213],[-0.015643763381436734,0.04000477386659367],[-0.023665269567775524,-0.15232520699377153],[-0.047615916975831854,0.04164558285573011],[-0.0016825595837539648,0.07287024306140703],[-0.0165693535737848,0.04576158737135622],[0.046242488137356826,-0.12050174754168884],[-0.006763147137790387,-0.0015176132699101636],[0.004372828489362505,0.046748687118613],[-0.017795419922065497,0.040881079910315636],[-0.008037161810478973,-0.026828068883261492],[-0.01475506370006871,-0.06453994849695308],[0.004149097540423839,-0.08502551055565721],[0.045325762414735196,-0.007454683164800401],[-0.032036922777519766,-0.024232084562857248],[0.03912533448527778,0.26337335334200485],[0.0012634633758374476,-0.10541262284876758],[-0.013599509502393112,-0.11037537877374093],[-0.010425772802741956,-0.21171911408314553],[-0.008334807405055548,0.07692529226048528],[-0.006799781843649316,-0.18216282274897838],[-0.003013011495128992,0.17949350118985316],[0.017198108083188165,0.021597524985393433],[0.010423538222989309,-0.02984812110155483],[0.4041961878320601,-0.30177079886187214],[-0.012588254537970054,0.011081368570817974]],[[-0.05272130608955983,-0.17794522237529808],[-0.014906490854975033,-0.009276461007043914],[0.013618050688037786,0.09773603234452738],[0.07734378254293069,-0.06060611983815654],[-0.036859772191209034,-0.023578733959475216],[-0.015762929867820727,-0.10645394214546376],[0.09104966213338828,-0.21652807927955128],[-0.003891751516644169,-0.013758290247973948],[0.040296902448328294,0.13227743525007185],[0.005814904778448999,0.041528699971879766],[-0.013057491184430402,-0.13533701083183794],[-0.029357093435009463,-0.07770939636173511],[0.01480451173022522,0.13130286625241652],[0.0187787923789522,0.07695634339125339],[0.014832940648690927,0.030297198426160223],[-0.012453289699064781,0.00375569866181977],[0.0133450116718721,0.012208734415172878],[0.19644987721780982,-0.032981919629868704],[0.003981867445368007,0.12063563128304429],[0.019215602165491407,0.020295722594594483],[-0.019952068681379498,-0.1178112523208778],[0.036135854640366304,0.009158886126520379],[0.0072522082305672125,0.08032669374408562],[0.0007770714587354026,-0.05612335098307233],[0.05323410031234166,-0.31606464223710695],[-0.0009158758441901128,0.053187284883897054],[-0.017495277626715523,0.0780896942638362],[0.0015307736854677544,0.03701159077000124],[-0.003720170225863663,-0.06057535194188391],[-0.007565724270622235,-0.13272369271798334],[-0.10561903090224503,-0.05569903270939707],[0.20137718230801374,-0.05023132027594297],[0.028310623501989034,-0.027828095703557345],[0.0032120077210934395,0.26992276025431805],[0.043635353536237806,-0.15247979877266732],[0.0017976660633668346,-0.0963417346443555],[0.014050396944922425,-0.1619141483849557],[0.02607802139590787,0.04704245035695026],[0.04548147822662883,-0.1948925066638805],[-0.025190598790736034,0.09604401779125829],[0.018369067190596174,0.04058630940868457],[-0.0008004350048274611,-0.03583831239214752],[-0.3432753295997516,-0.12875779536112492],[-0.046492294982514025,0.03546449728183721]],[[-0.05953892447772989,0.022497514862730623],[0.019560313606009634,-0.015985130080978474],[-0.0051508953561387625,0.18130541661474966],[-0.01836553282999303,-0.07261371518598828],[0.004114858859556881,-0.12546109039608763],[0.008560331033619896,-0.06551522559791728],[0.040195547402536835,-0.13478045350313808],[0.002810041137549171,-0.026153321839207926],[-0.03805191665962406,0.16153904905313066],[-0.023530504094012885,0.02680924368622469],[0.031798966431597575,-0.13184435162706268],[-0.038068045757436796,-0.0383266881439282],[-0.022325041258875744,0.14582606908392215],[-0.0019387748940409419,0.133870976954419],[-0.0009969908469636987,0.04155704200906117],[-0.0070119518402977,0.06145035642227612],[-0.0021912058602279487,0.004799714784809981],[-0.11825134750588286,0.16953470748584784],[-0.04862190605346939,0.003430781234054768],[-0.024819918749408608,0.02067526267516608],[-0.028095727071402486,-0.1542631206909111],[-0.027562062627750458,0.02963445492078409],[-0.004756834802087419,0.08387458185592926],[0.00594038637385521,-0.10149633719071581],[-0.02227197739707573,-0.32773058242435693],[-0.017743997353464193,0.055951478756890896],[-0.005758622279266634,0.08682550171734282],[-0.0072785600023758884,0.03014512182620109],[0.022146574028970724,-0.15104694964440318],[-0.048963696757611266,-0.20520131116212204],[0.11196146232160334,0.10379707627325438],[-0.30020082914639634,0.003929050854058938],[-0.04118920307853016,-0.009067683991972027],[0.027013208464068107,0.29646419019243286],[-0.026555063973566346,-0.12626063288225717],[-0.00434354970941284,-0.12468347079280878],[-0.0031206181162633977,-0.06619508673627747],[-0.012388498486412101,0.008850459229339453],[0.044110441963686464,-0.051926260735931276],[-0.006700108935560142,0.029440396298316237],[-0.010189100075818653,0.09815506276228984],[0.017405399284507083,-0.027374821015424166],[0.09256600299936964,-0.02404484856739663],[-0.005926022787881243,0.05213408129034859]],[[0.03370105648695516,0.0649186118009194],[-0.01159389486998395,-0.043464166579784434],[0.0034385061462973506,0.1556264273749528],[0.014326339815468558,-0.12517224192499102],[0.08300444803860009,-0.1828815011666437],[0.0015873742539484256,-0.06267633284202254],[-0.023622005601202943,-0.05365224047903059],[-0.005175942220794157,-0.05849497949408929],[-0.10825060438191626,0.014586510316372467],[-0.009270305470127358,0.013387260396518885],[-0.04507635705008929,-0.021902890665850647],[0.00214446631809359,-0.01958532164075394],[0.011045564804905605,0.10247396215016236],[-0.009168393918929858,0.1953634675786212],[0.004619224034108562,0.05639129308934293],[0.039683968219569654,0.054011489528209035],[0.01238483175360751,0.002727417275324657],[0.017487252866603433,0.1329525100157479],[-0.030627624048094108,-0.04999824232930662],[0.007180183809761889,-0.026744331456012342],[-0.010079376505655078,-0.11403096904820953],[0.03264670882078312,0.08925929902811011],[0.005017168185375151,0.09733607215460706],[-0.0014189737931713067,-0.12871268734270302],[-0.011043239135270345,-0.3269315772841478],[0.025201783444126952,-0.054546715437840176],[0.017253109413288916,0.08109737649563808],[0.005801793887722171,0.022654768618426524],[0.00354028301197342,-0.17038886337582546],[0.014653526275888402,-0.23648179431856245],[-0.007664706274436968,0.09921784367445907],[0.26553813021334827,0.051092018664327964],[0.22562629290188327,-0.015411021030293378],[4.1687444983584156e-05,0.2078507903474379],[-0.09207868600665975,0.019383599094701314],[0.010068901104069933,-0.13059297277749135],[0.017538797731010983,-0.013288036516591247],[-0.0246541833898394,-0.1181641778274662],[-0.06385917625330415,0.05455467325126893],[-0.02266117766926173,-0.03652972169614345],[0.01884556476072937,0.13060305232878855],[-0.0005894035386171911,-0.025181223915769147],[0.05176295816794211,-0.0027367005876852792],[0.004298653914615194,0.05351369654561782]],[[0.007281106543854141,0.29435891169651357],[0.014511816442412805,-0.07474814971185163],[0.015022214022141088,0.06694377151117659],[0.030420811591959362,-0.18588940038166993],[0.0006175197831185889,-0.15378025825263797],[0.027278416266699933,-0.05151336704892672],[-0.016317129369209697,0.03927740304732415],[0.009448216839877349,-0.06293740253637617],[0.009751346303472408,-0.16688323567785673],[-0.037403223122142726,-0.007051568798088438],[0.031632929778788364,0.003575164342740141],[-0.0043284688311362035,0.006202786636540601],[-0.03722607453622627,0.10568782006977917],[-0.006124913381245829,0.23831020861926278],[0.00818428149999741,0.04936316957707059],[0.0024773075353209436,0.04822691243751586],[0.003710722503157048,0.000820669880666724],[-0.03107139373431144,-0.023823570711997824],[0.06262789577233502,-0.15258412123828197],[-0.014864120827768477,-0.07031898019696643],[0.000167975021562359,-0.10139645645729453],[-0.04103007085125339,0.1776718668205602],[-0.010842533440695835,0.08271979651107852],[0.015812957795056426,-0.11163512508215209],[0.015315502675926362,-0.200076743470388],[-0.0009248335764734793,-0.03411378000475969],[0.06050361753118355,-0.020550338115354175],[-0.00518711353812909,0.03840286385374216],[0.024420512892002092,-0.1935685607786694],[-0.104517354788175,-0.20672718274578217],[0.009492337664781804,-0.04436920848021529],[-0.12626573203020508,0.01869253832200448],[-0.2528556960086115,-0.027650084071524632],[-0.007214331428508674,0.19493775862767798],[0.0015947406260860839,0.13935494576355603],[0.009273961177885563,-0.11051750329387178],[0.02249699450174481,0.03639604455657423],[-0.03558020546792206,-0.22813271866119822],[-0.034838675541807314,0.18383875176472023],[-0.004033157128645619,-0.09213650750157774],[-0.0026574638079260773,0.1315126769126997],[0.013211958773034192,-0.011724068041009866],[0.0048927926793222816,0.017661314225835927],[-0.008335374992246165,0.014330150345756238]],[[0.0012355343966622303,0.2732815487446169],[-0.014128265933079162,-0.0744154248621773],[0.016800838680406046,0.01668923420280715],[-0.2289797324061011,0.007025096708271724],[-0.0005270739701949451,-0.0062389627358717895],[0.011982669018359045,-0.05807833378786391],[0.003529072416631955,0.05553465079839681],[-0.004627714878685348,-0.06706196824230078],[0.08301171877047223,-0.19555604710113655],[0.007963076369221025,-0.048663317665202155],[0.002061210384289177,-0.009709685650213436],[0.014864849434633783,0.010498085990845486],[-0.2188354787256923,-0.04976529523326652],[0.03305668101203283,0.2376009923229145],[0.0431486256938885,0.010931885447594623],[-0.023565511699810103,0.013266807703776737],[0.03512550074715949,0.00790937771165154],[-0.04567590379215977,-0.03709871140288212],[-0.047796332123300804,-0.21395792956075302],[-0.013485248082522732,-0.12591394996755176],[-0.0029781169552278914,-0.06420597723835089],[0.03666972757300098,0.2538997583146728],[-0.004040054881593994,0.08152679281101748],[0.020593252747601664,-0.09794062052359181],[-3.628262033071139e-05,-0.18097172824192828],[-0.01081231561023306,0.05278680333978761],[-0.252799144107543,-0.07630119843544712],[0.005743816205965371,0.051581867096775896],[0.014719147386232478,-0.06084950421529409],[0.0022772407967393835,-0.11482131017013847],[-0.01385261400215338,-0.144667890366158],[-0.02810296718597454,-0.07560372036090918],[0.16222214863793014,-0.03252496865251873],[0.01593538623239441,0.10147890948633988],[0.010806912301402754,0.18035236896289178],[0.02829253733933965,-0.10820046639967414],[-0.043926922885467415,0.11295919836828143],[0.042908993380588394,-0.1736145527057413],[-0.10985104767620692,0.02943010004986949],[0.001861043323703657,-0.11329821648596952],[0.017884485346477078,0.11793637076193335],[-0.016559584933860772,0.006702708877576936],[0.013990675393727996,0.00402312068755565],[0.009302402645300344,-0.023801918844664444]]]},{"Name":"Lncosh","Size":44},{"Inputs":44,"Name":"Sum","Outputs":1}],"Name":"FFNN"}
