{"Name":"RbmSpin","Nhidden":22,"Nvisible":22,"UseHiddenBias":true,"UseVisibleBias":true,"W":[[[0.008610677393722434,0.024560463229989934],[0.009628692740481011,0.13626565507759844],[-0.0134400346050371,0.018221185398323674],[0.012209202459639492,-0.010254833197513157],[-0.010241710464624697,0.13444615539992927],[0.009994875093411779,-0.10543529539294508],[-0.29035335026085213,-0.09280558394420695],[0.002878331777094413,0.032454009351135446],[-0.0009192200580757555,-0.06434344949380108],[-0.050778316935093944,0.5034525834427834],[-0.006843708790698642,-0.14916948518605258],[-0.017796993002685252,-0.2620891464740973],[0.04850631550467609,0.0036827291414682764],[0.0133410341406327,0.07285131486877648],[-0.08684333286037135,0.08341415259838109],[0.047173845513583244,-0.28283936573357843],[-0.02176451952173381,-0.0989530342145022],[0.007514025201772727,0.007745195741563424],[-0.0029707682831568057,0.06313244753407742],[0.015814560128954006,0.013488165488235046],[-0.014069702476503328,0.10374345924214488],[-0.014941484262982455,-0.0381407450064243]],[[0.00997964930897707,0.03714267897687016],[-0.003837216422555618,0.17155342925057107],[0.0038962004690872016,-0.02974328295698586],[0.020885346567352397,0.19242562974733274],[-0.002671309844115572,0.15017311071120662],[-0.03180423826911668,0.03336260687219339],[0.03413987083975218,0.010034273941687448],[-0.02344710617421611,0.05673749885083547],[0.008203188331248615,-0.0296419596877178],[0.03910405476255641,0.4764825996602986],[0.025694412574876233,-0.07149595120801307],[0.008445718767674602,-0.27311965864838195],[-0.252562141036825,0.09346212123517976],[0.007293824642343882,0.07610833943653639],[0.01861910819935363,-0.12334350687846654],[-0.04346989352439109,-0.31272510256060027],[0.0031039583128746524,-0.10106722186309357],[0.025581450371114912,0.021328584459151863],[0.032713625781378645,0.10761702172853393],[-0.0030160562861899403,-0.0016125271059501676],[-0.014617038527037574,0.12201378708241384],[0.0011763588651363117,-0.062024437426654186]],[[-0.0007487804873903646,0.03976120756712827],[-0.0005458331597901748,0.17994687107565097],[-0.017586845022049796,-0.01895097965319924],[-0.02505368366927799,0.364366469428128],[-0.011986442688363432,0.13001506125299267],[0.018886933959726022,0.16774949704005582],[-0.03154329620064005,0.005693730365139564],[0.0204829943265588,0.08177170524727481],[-0.022665166651988134,-0.03906666939619319],[-0.011760269762837406,0.2460138569068723],[-0.0062277321892140886,-0.017278448488353575],[-0.03014646352942999,-0.13912278412910606],[0.553639594443113,0.2415373265157713],[0.017440185476612042,0.07213386647090568],[0.019531561459144975,-0.05224100784620472],[0.016316919302791243,-0.2172920877884465],[-0.009357631196948274,-0.04769672582416165],[-0.0010267692572929563,0.002188305444688215],[-0.08201333624601832,-0.07679475863489192],[-0.013626773011908807,-0.012738232008067394],[-0.0024250933067095403,0.14655669726315396],[-0.004169599271257427,-0.05493363750186039]],[[0.00138589652637732,0.04135980088797883],[0.0055976670364388335,0.1993915729905744],[-0.08424802834282938,-0.0372354637103133],[0.0377279928527403,0.5297355138427864],[0.012739979991667795,0.08447952345463103],[0.06231865349675021,0.3462700722020133],[-0.03386155374898771,-0.01275581416030538],[-0.006228521201103766,0.12821482619244512],[0.037097682632212706,0.013730032771785085],[0.006076469604912812,0.1071080271680789],[-0.02346385449790042,0.04968856292035054],[-0.04984057351106583,-0.038450363503243976],[-0.2713409845798364,0.013472449426027345],[0.007832677808454957,0.05829171605379731],[-0.03748868393962511,0.054417987675022025],[0.05028726382295333,-0.1143974919331304],[-0.01130549981020735,0.023597902565901063],[0.010285284100916994,-0.0028749933683606473],[-0.005624427532856217,-0.119827837715625],[-0.011792372872518305,-0.023553320444997555],[0.0034919811098247044,0.1535500518407633],[-0.006192422129622473,-0.06035514883258875]],[[-0.005349054234215613,0.04809439299373355],[0.00886099606142961,0.21179480939078962],[0.20896447975050722,0.20773066958769879],[-0.019029565632935057,0.40982739917552735],[-0.004966068225037609,0.047819740432994966],[-0.040575227604029804,0.3664270611574754],[-0.011312487050971553,-0.021078013694963413],[0.01385858568517035,0.13398588595545416],[0.08582821038473973,0.009759762666555006],[-0.00357448423206201,0.030433266756278853],[0.031246956799707203,0.14388031249298636],[0.0534411259321697,0.028635957281684145],[0.0867791464354279,-0.019630187195294975],[-0.0020706407769167006,0.05078976641575976],[0.005993598563439716,0.17843624860046192],[-0.06488143929357082,0.105513421157506],[0.017760442419976482,0.08440426200264887],[0.004336714725754154,0.008747870504432074],[0.03498578468698364,-0.08807709793774023],[0.005483130054135123,-0.041070396610675214],[-0.023221380896563806,0.17816327560285772],[-0.000849914614703269,-0.05189373902409211]],[[-0.0071976030631402295,0.060614914743172266],[0.008447601464864299,0.18827610993489446],[-0.2578828535891859,0.41921473158390415],[-0.00879519084630885,0.23301519870490525],[0.002469992747594148,0.03327805862157721],[0.011129150808198639,0.30304502844805886],[-0.0027571601870266704,0.013155794042715515],[-0.034784824555006096,0.03770309066413858],[-0.3054479378605539,-0.051196224650433],[0.021746011762369625,-0.03625101532942059],[0.0012353306818135166,0.15401772066417294],[-0.0222620621660282,-0.016955699348617057],[-0.04162179602593256,0.003582416267139795],[-0.00932091530429672,0.056120561270514076],[-0.0009511836738889032,0.15807919021471595],[0.019302535972133033,0.22299917614490888],[0.007188952173535765,0.11401742568870947],[0.003011035503583399,0.013499727399443955],[-0.041479828012691435,0.14419608723503996],[-0.020700835911167288,-0.04625851091492431],[-0.005694772137931658,0.09070147011970743],[-0.004976694248519417,-0.07088527931645468]],[[-0.006479859612322562,0.07111240550593331],[-0.0033687671574627815,0.1718303833348326],[0.059896754177944316,0.21862314071372585],[0.0043636480311087964,0.15967472225330254],[0.018760077579189596,0.02174997459074344],[0.009342616476628528,0.22205517600710648],[-0.021334837453833442,0.03692500120616132],[-0.09945885923572428,-0.08557301242387622],[0.4644118683442586,-0.30631390974301004],[0.024149237124371597,-0.0580645647377005],[-0.02260990869939731,0.16662912962376514],[-0.05942442170720689,-0.02354017254744047],[0.014047682619241242,0.029603270529467506],[-0.006060101162228998,0.05228147276634428],[0.013624721964147095,0.10367161053325276],[0.006118571548850649,0.3122771033585463],[-0.027237361698991543,0.1472022497797876],[0.00325316089257868,0.02430002343900662],[-0.009157748979843354,0.2291343097237016],[0.015737566686932845,-0.040857141045786464],[-0.010252624645763132,-0.0748858291086853],[-0.0003626657366287885,-0.06989201743577317]],[[-0.0016776794551675149,0.08295733956249589],[-0.010295332836899847,0.17495268900659688],[0.04577074546330839,0.09818570328737264],[0.0016405170752916533,0.12480848622029916],[-0.014589244537567552,0.018125817399430078],[-0.03707685595945625,0.11071252469487136],[0.007051126564521426,0.04730763472955039],[0.27617062075543397,-0.5048165939696517],[-0.26328280594783854,-0.10201296450074451],[0.007508658595245836,-0.07764290496043694],[-0.002331761654440854,0.15622560638533997],[0.06266703751982927,0.050204606161529726],[-0.051779247590006544,0.06619733915281673],[-0.010369239502593027,0.060236729992307246],[-0.028173706430660715,0.06334545389916901],[-0.03571555106372856,0.3134934596531846],[0.006023769362938092,0.1816904795942195],[-0.0015087962161440132,0.048546109380252354],[-0.00813978139665937,0.2774973023234295],[-0.010915564700557101,-0.011937856669432685],[-0.02490843183607034,-0.21893018438760561],[-0.003887132370830851,-0.08563395590921728]],[[0.00307427577932216,0.08970581086271513],[0.00890432388137239,0.17391557854360742],[-0.004757259596738168,-0.08667972262111696],[0.0029362758543128756,0.09397428215941356],[-0.0033130454043572466,0.017030011945453654],[-0.02121169886612544,-0.018239200788726682],[-0.0017212853266918306,0.05807756555270341],[-0.22618475970369434,-0.19879180083101114],[0.01765077276624173,0.026719228749109963],[0.014198191740315832,-0.06624820291093506],[0.014523396911593529,0.12819890901217199],[0.05842927163764845,0.16861345095772268],[-0.013586968293948502,0.053770871034566126],[-0.015751842074873273,0.058818050396846455],[-0.002252234457145417,0.00655912282498085],[0.02360653345330807,0.2837177522542259],[-0.014068743140533909,0.19277839515432763],[0.000787661216145062,0.05072569748412213],[-0.01840261636142212,0.22445032174756188],[-0.007843584078356574,-0.010499749144251887],[0.21041105634711343,-0.4146418491145586],[-0.004398269053660896,-0.0880460682506117]],[[0.006236416377885639,0.092349115039103],[-0.031724335490381964,0.15408222556556322],[-0.014422617278792484,-0.20727356631080757],[0.015521318554613115,0.04809482672448105],[-0.01090139624916054,0.016427138589690804],[0.04315109776726228,-0.24056993927036893],[-0.006928901983914055,0.08232068013748221],[0.1190453784008352,0.09550852702241208],[0.06014475381842632,0.11858826611953957],[0.009775030612126362,-0.05595628121213839],[0.016676045616039088,0.10753519212300534],[-0.04814203542458424,0.3474452938343012],[-0.03467266381294463,0.062437432711621804],[-0.03380181332174578,0.07512446559087153],[0.026306675126226718,-0.04102575773236469],[0.0007483359575416415,0.3204797798188575],[-0.006730738872466491,0.16766853312345814],[-0.0009187968762586262,0.05005762494823948],[0.007695839819021515,0.21665164522906785],[-0.15546620302020714,0.027610643287768334],[-0.2284325612773655,-0.3333124460911367],[-0.005315627905942831,-0.09977316726790535]],[[0.01839016721764253,0.10132653229034248],[-0.019127844203678874,-0.06861038907638962],[0.01478582533459222,-0.2260277477158578],[0.010946976543607484,-0.0561966955735215],[-0.02286824413729292,0.03556268319559276],[-0.010576352050144504,-0.2504367316782716],[-0.001285030617402735,0.09108186289036953],[0.009007670177690346,0.09293203107775203],[0.012400932662294159,0.165781025054536],[0.002594456968264846,-0.0677189145225769],[0.00036512640575335665,0.08801719903801773],[0.052959924304826406,0.38347668177192323],[-0.011775986750242898,0.03553273055973777],[0.013236914112203332,0.07802607266275344],[-0.029770354347998903,-0.11548160690595818],[0.008732016269939052,0.29645953674630915],[0.04603207000892866,0.22201763933856972],[-0.00556049796411129,0.04985940821368981],[0.01830411586015498,0.18659594987493577],[0.37811074254640087,0.11682394860687671],[0.06901625346082334,0.007839430671649683],[-0.011572845693208402,-0.10273326964907366]],[[-0.0005202668697482406,0.07853252910495767],[0.007128589554403583,-0.25119396878951034],[0.01828167905072017,-0.18500495928818073],[-0.008683099188932453,-0.09784788957762366],[0.010865961516022135,-0.025257745056021266],[-0.023737686273770632,-0.1624898249103873],[-0.0023044990296053488,0.06377718789965629],[-0.006634779689624518,0.09470558349249987],[0.02046606823417851,0.14953559718917572],[-0.009798013040000676,-0.08801975149134271],[-0.012139125949223513,0.038190803986753924],[0.03880756480751911,0.28296399378068776],[-0.029245703498503774,0.01747889606361323],[-0.054370365494458506,0.004735907350208882],[-0.027961795682973183,-0.1449994968446055],[-0.013658398535877365,0.19315729444171278],[-0.022172077117259957,0.2620625588589527],[0.009563146647279381,0.04496582161752541],[-0.005290929652361585,0.14322769019121237],[-0.4390244707963769,-0.0925063139001343],[0.023128227549400835,0.04842849021780586],[0.008606470967994518,-0.12254886616042164]],[[0.017408181665589335,0.06478734385118089],[0.026964986920059338,-0.5763013957763808],[0.0064656378820883344,-0.12392818527540951],[0.004374952953259689,-0.15346431882544537],[-0.02079181821376121,-0.11847644874906556],[0.006290641119229981,-0.04768710707160984],[-0.0017681152390997647,0.04838155282964215],[0.01171839945733151,0.042864274184858754],[-0.008772126198341902,0.10520619386286333],[-0.002955409186845277,-0.06900190094820437],[0.015534285638928051,0.009474247918332875],[-0.04001058168444842,0.18388668426009921],[-0.017431114158380123,0.007895991458722908],[-0.17070945693976164,-0.10931550887256515],[0.03668990726371415,-0.18292932327082556],[-0.009209958904767545,0.06379016890982521],[-0.012858697000250097,0.35007596181660083],[0.005689721014087076,0.041108907325782824],[0.020675316194893725,0.055326234715282634],[0.24770478935895412,-0.12894843846290768],[-0.009739105802140552,0.08903478635781327],[0.006478148152772396,-0.11706731976035425]],[[-0.006399790056046413,0.050487805989524154],[-0.00013268017204674072,-0.2803237578855743],[0.022219735378050443,-0.07727501269549299],[-0.001785432611057316,-0.16679364057296545],[-0.02193021448286947,-0.2043115780117648],[0.009867527609482384,-0.05822991055388474],[0.0016274356975035016,0.0509640357089842],[-0.014673554491613592,0.01804962675791088],[-0.020233390281590338,0.0800922807199261],[-0.0026491630415579376,-0.09891682027764118],[4.409227622798159e-05,-0.004416367191019401],[-0.012942295286867772,0.07935957291925402],[-0.02962187554698046,-0.016539527999747172],[0.43923193877971267,-0.6638290262251503],[-0.0046468134139170305,-0.17695213615942548],[-0.030466891086274053,0.0170021458816512],[0.04377168002169635,0.17850290529383586],[0.006412138289147444,0.02494899883204174],[-0.010548323573436944,-0.04488843075586806],[-0.03298199271545548,-0.028533727003978427],[0.003826466451620669,0.03776078724658679],[0.11929869476985064,0.025062817385281152]],[[-0.02679711441440484,0.040180136638938886],[0.021257750122621853,-0.1619732513721329],[0.022175366062409906,-0.04580850286546225],[0.004823568514885501,-0.19673729622416694],[0.29113168822619023,-0.3587336741530862],[0.0005749682818741554,-0.07527473879396414],[-0.008117944033527362,0.05449342765125066],[-0.012271359409496044,0.0072446583355048125],[-0.01864252153924202,0.05951488816918957],[-0.008897666055584362,-0.13029222594667642],[0.012917934506818694,-0.003404202421945431],[0.029227985727298636,0.0019448530298502623],[0.0063451642328123965,-0.0472842725847865],[-0.32055270462620356,-0.2593667975903353],[-0.007641338031720329,-0.20146034806273141],[0.011922216465343655,-0.017818184801644384],[-0.02325892110445016,0.07024077226663698],[-2.5816296069674756e-05,0.01681879579437906],[0.02411944028797445,-0.12757313041598173],[0.06382576704808704,-0.030873682623381565],[0.005155430984074567,0.029024543322720794],[0.17885985439788896,0.18580567022191033]],[[-0.06341715229320229,-0.023876995804956853],[0.018107463679106393,-0.13042121787786648],[0.011815317330932044,-0.039718375931586454],[0.00536944409287657,-0.2075688816701592],[-0.2887855673990602,-0.4000987443573721],[-0.0027834946508956374,-0.10285706055762446],[-0.002794629920844351,0.06126562324062144],[-0.012409825935770386,0.003415048963611076],[-0.004213549458448704,0.044884606157894025],[0.012080703810570843,-0.15175974334569495],[-0.0011259601210320185,0.05840218210711739],[-0.008649367932225928,-0.07153997786651431],[-0.0071202005487593185,-0.04815218100211023],[0.03800947751935629,-0.05497949596223054],[0.018533572463479208,-0.1640507103799804],[-0.0173087483011838,-0.05695356061479014],[-0.07761600679850648,-0.06314595290407825],[0.009492047069118095,-0.01146077072782152],[6.46835626768236e-05,-0.1675776258855982],[0.024658782297137322,0.02824606048491663],[-0.0006589644715559013,0.01750247452110103],[-0.22134997588293479,0.5337094672473082]],[[-0.2746043259888999,-0.14635224844873432],[-0.011120599677754443,-0.11225725226032834],[-0.001084441691208978,-0.020426802478990643],[0.01293730016076018,-0.24946946600813275],[0.06508951853898114,-0.16202855051658507],[-0.009436613796897433,-0.11946608269677333],[-0.011943029802952447,0.07750482042138286],[-0.01307508900909278,-0.0006298093352794061],[-0.0016150337506978566,0.01726109879959577],[0.011898704956354558,-0.20517839256880924],[0.02555143821454495,0.2043710800923661],[-0.0015941128035114331,-0.12990650505295515],[0.0274664711741443,-0.07453100623928448],[-0.003950763908108061,-0.003596641606709276],[0.03637772890791513,-0.13379398140245005],[-0.009934355942872097,-0.09113478922501947],[0.06874174775811388,-0.23718859852626228],[-0.06714154104396527,-0.10310343361627844],[0.027331275394587146,-0.2381211819072109],[0.042702490754453426,0.04749744220340379],[0.0015064017564075996,0.003356624528616362],[0.1254143103587464,0.35346178814151447]],[[0.48585916143260355,-0.55924245425489],[0.002835002337351902,-0.10064103109091112],[0.008871562495091672,0.004998946963808246],[-0.016050324915824792,-0.24820599774526977],[-0.014141884267802262,-0.013315624424163225],[-0.0031816518607158065,-0.09310902605072179],[0.017756909689736297,0.03923858408100708],[-0.012403202454001002,-0.017283151871002506],[-0.020875301499538687,-0.010681142603975532],[-0.002875585701458414,-0.2001547370474726],[-0.023809898591335393,0.08372790318302485],[-0.02142461571841147,-0.09728647096323287],[0.009886276421103587,-0.08723950848811066],[0.000428490163897658,0.04993738059910651],[0.025835155759549894,-0.06385318037497319],[-0.02635073149614685,-0.1379475200856709],[0.006742723503187345,-0.32642677046971486],[0.001851459687483694,-0.1481472753776004],[-0.0364841700084552,-0.23275343806295334],[-0.0005785198648163725,0.06839119760441294],[0.007334457998362168,-0.024733135628733673],[-0.03449837190909579,0.042224926717778145]],[[-0.30177552752526526,-0.15996299659816005],[0.010512124296949393,-0.06968146912899323],[0.0034462766119971486,0.035903194510977156],[0.0006115133301801415,-0.24028571857279998],[-0.004474103047432193,0.09214540061542237],[0.003125081941501231,-0.06140556323811298],[0.005139456721300679,0.030820157248898805],[-0.007279733890506316,-0.029577723617821256],[-0.02090936600633652,-0.043222833474807494],[0.014897772124119208,-0.17884190385676493],[-0.05539670453996258,-0.07889665765631108],[-0.001602370675428596,-0.08796147053805696],[0.031165107862780057,-0.08185532914838581],[-0.007547520287281786,0.07174750410456578],[0.016776002795544143,0.014644320504423356],[0.01818880989442598,-0.16322327845545087],[0.04309688355171971,-0.3901746224711091],[0.3880759824283426,-0.07634833922667529],[0.004898324781346464,-0.23198577692392008],[0.024592940542730434,0.07675938098656408],[0.009311971281276659,-0.019319009360936425],[-0.01753642317126179,-0.009849299371068883]],[[0.05132732977487968,-0.07625813619107383],[0.002887454239265959,-0.015245999657217905],[-0.008398976156018104,0.05149921568480409],[-0.0006625550879449983,-0.22736432835122017],[-0.01639296890729377,0.14743329201546468],[-0.01043277820607125,-0.06474309289541531],[0.010361464584452714,-0.055893435908993316],[-0.014611870923850794,-0.028912246991918026],[-0.025338060930120976,-0.06655873052931827],[0.01878735109419228,-0.10797276832163738],[-0.03978787639224752,-0.227956044007733],[0.0034178123622667454,-0.06851249467523073],[-7.803246412352804e-05,-0.08202105444096311],[0.0014456821515424734,0.08077306719435129],[0.016623786019452646,0.12755273603565592],[0.005850938031656181,-0.21401462415187492],[0.02472035838798753,-0.32621058775994266],[-0.6595446673909722,-0.08642915691396306],[0.034658321725803555,-0.20950248017920126],[-0.007790034067946276,0.06846045627496702],[-0.006341395743428964,-0.011226718900243023],[-0.02492804000048537,-0.048282363542377554]],[[0.06744753465950866,0.0031937398768429634],[-0.008052413352402742,0.022511760817927197],[-0.012304602947996152,0.0351601282027389],[-0.006229207798539452,-0.18247302407047467],[0.010383437018563627,0.16135097757359648],[-0.014148577461506053,-0.08998529570483671],[-0.20863706747729607,-0.1347497811613483],[-0.01323571886802159,-0.022958568960440812],[-0.02438901966632531,-0.0825537434908981],[0.00020804358398767423,0.02160031068938894],[0.12802748598760408,-0.5123866193876006],[-0.0011998797928865197,-0.09358890014233388],[0.009467698622062903,-0.07834521896532501],[0.012679400502006286,0.08254201438251374],[-0.02628714143283042,0.3367151370203934],[-0.013129412826137062,-0.22736532430322348],[-0.033374102927939624,-0.240672118408311],[0.2500532875827899,-0.0175033105940775],[-0.017540412688571056,-0.12858088230834963],[0.005218475522936958,0.0498673994741201],[-0.0033022830669391075,0.011645511304824269],[-0.012921809101105396,-0.02253683552883486]],[[0.020143961034571813,0.025146962827702474],[0.0052501637935987635,0.07273793482655469],[-0.011151575871793315,0.024744355985259613],[0.008016444429575319,-0.10270857586108527],[0.004333774629374298,0.13750688290284627],[0.03020638149146384,-0.13724067519182417],[0.5128559140250967,-0.4521425557855398],[-0.007788661507908574,0.004498654098900649],[-0.006169325959286684,-0.07471653686587372],[-0.010762831755394683,0.2101732064293327],[-0.060698229198064606,-0.2441116939539518],[-0.024113957318532792,-0.17809480496981064],[-0.011903959180020976,-0.045638190429929185],[0.006033329981130345,0.07066104357561594],[0.022831600932165505,0.2174515473861272],[-0.0008639402019148997,-0.2682864954721996],[0.002634112424517861,-0.1525401289711687],[0.03285175301009108,-0.03643079910867988],[-0.015142089923737577,-0.017881286367306997],[-0.004508926680586305,0.023812405911680823],[-0.0027058996119734974,0.058793130257482014],[-0.014046206704473452,-0.041040263661878525]]],"a":[[-0.008788074393511121,-0.001375463854938842],[-0.008036408500784619,-0.0026004208085099625],[0.0005858160812526566,-0.002634461598240505],[0.0024343682355187734,-0.003756657574811705],[0.002392260579835536,-0.0001391915377734088],[-0.005717016024597365,-0.002283045937053585],[-0.006186059859263726,-0.004880636357176036],[-0.006363236082520339,-0.0020085122875822185],[-0.006733464088000977,-0.0045135975383775815],[-0.002115747360835735,0.0005205058729316826],[-0.0002624253661416163,-0.0018881956344139212],[0.002447709922841084,-0.00010084990105652756],[0.002249455383992946,-0.00037807100805481756],[-0.00012955839696716129,-0.0033174097097799513],[0.00035883586862536484,-0.0017748419559510936],[0.0066511370745784655,0.0002871289560544887],[0.0023917525821211595,-0.0021572123008956785],[-0.00027549132937551405,-0.0032753201924661398],[-0.0016299711672228942,-0.000970151941148165],[0.0008973321394896618,-0.000583352377512679],[-0.0010284562601875005,-0.0018038590375802689],[-0.002150146351907862,0.0005092277340102731]],"b":[[0.0002332452161565571,0.003466795550371706],[0.0013942014626545176,-0.011356079733309774],[-0.006307303827945624,-0.012347447889830162],[0.0009500044460000035,0.009322807321037681],[6.483083328117346e-05,0.0005938741193438472],[-0.005997836546127158,-0.0029559143639009324],[-0.001245379190059868,-0.00436805266610257],[-0.0007085810125132458,-0.0013851226313807783],[0.000211996459512323,0.006924773309745304],[-0.0029671508599072188,-0.004026545018095116],[0.0029477826667421814,-0.0006050999539966218],[-0.005275772839160533,0.012547878797660731],[-0.0012319027681803902,0.00032143518123629823],[-0.001105391025800401,0.0011317556867583426],[-0.0012234459515443302,0.010529018362025539],[-0.006485216051299464,0.0007206251067110188],[0.006373270220512973,-0.002972029928839608],[0.0030955318974679436,0.0004920715495363801],[-0.0017148316179467112,-0.010445887125638424],[0.004219665083905557,0.0018581580048972833],[0.0015445210897309628,0.005472210063164749],[0.000773800053032877,0.006926559878937768]]}
