{"Layers":[{"Bias":[[-0.00035369130016733576,0.001587129870442389],[-0.00025439863734507686,-0.0007804187676923143],[0.000737007740340136,0.0013702208031004827],[-0.0017947015926535253,-0.0017318406865392143],[0.0003236050137519943,-0.0008282435504479822],[-0.00043029145331705134,0.002517095884255209],[0.0015537108232926355,0.0004507450590781319],[-0.0015296483146578362,-7.996598766219007e-05],[-0.000913110107248445,-0.001558077390796317],[0.0028801989462821026,0.0009698681605300974],[0.0031431907306453104,-5.466977052811679e-05],[-0.0004290300501691933,-0.0010479047230040445],[0.0014201470240998361,5.618334409491445e-05],[-0.000575101101194515,0.0003187139948214937],[0.0010080990249274765,-0.0022636372833548263],[2.660964260964169e-05,-0.0016907914312453733],[-0.0011964606409924847,0.0023428735087121467],[0.001191324706670666,-0.001000923492455788],[-0.0008323963579595824,0.0013912632409208724],[-0.001045271551442399,0.0017128598791914954],[0.00042411705805137274,-0.0007375545091762887],[-0.0006192836387297693,0.0007120020322527283],[-0.0003624220014190806,-0.0006122370611228527],[0.0005296539676842122,-0.0011328046175013687],[-0.0002575483706210282,0.0006514141868371737],[0.0003294543619011301,-0.0013717742924223364],[-0.000602401012886445,0.00042189664811326764],[0.0003675201656370246,-4.038168556023916e-05]],"Inputs":14,"Name":"FullyConnected","Outputs":28,"UseBias":true,"Weight":[[[-0.010808352325283377,0.005799623802607499],[0.05024697042717143,0.17623640453267886],[-0.06045047932430993,0.1570800307484195],[0.07703027383493166,0.30474969698073495],[0.006875742578351813,-0.15531788105115088],[0.016512652621091407,-0.008305468841663725],[0.05997815617252165,-0.13348288738297542],[0.009199230384179172,0.09708100125930742],[0.014705364843461148,-0.04549150822494415],[-0.0033462029099459224,-0.07389960815135815],[0.08074417685950587,0.17399275270198064],[0.00034961750178207583,0.04457098418652687],[0.14961870590101778,-0.07440756877997119],[-0.0006067891043945871,-0.03548582167671277],[0.012130383558813884,-0.13619263035784235],[-0.02610986923436513,-0.25119663122293756],[0.006542884398843751,0.114040306782056],[-0.18293948074826893,0.2318660043446608],[0.05620542206122259,0.034941803653305584],[0.023528291622927175,-0.11976243346915787],[0.0109190464299899,-0.027342169496212897],[-0.0012847162723489997,-0.13006306732514256],[0.032379381230743534,-0.009421278877385848],[-0.007322494686452815,0.014893043541903298],[0.0012238380344133655,-0.23307418466466656],[-0.0037504364439199717,0.024625917644017278],[0.0021609646848068306,0.050157018207131004],[0.09585248637089151,-0.1258461508835895]],[[0.008189095418064124,-0.01399463829720376],[-0.01273050650727034,0.1494182528839331],[0.07662768848276375,-0.030532261877206],[-0.09160609623259874,0.28301218625413105],[-0.00045548258554333474,-0.10562754196137104],[0.005957422276198135,0.04990332095923591],[-0.018852434722560277,0.028256466627347047],[-0.026236252562010974,0.18383615603742273],[-0.012388299339032523,-0.025928924322166293],[-0.007186615040308266,-0.0448052423106313],[-0.0670359510103356,0.14368493634242488],[0.05099409464831662,0.2796332656489421],[-0.15971744967043802,-0.18235558620303116],[0.030551323650565294,-0.04340857281903367],[0.01614139208281281,-0.12167373042013922],[-0.01657433271196619,-0.26665755392625606],[-0.009690913595862853,0.0967541398098386],[0.03299758793073048,0.14420716649088614],[-0.06399831190593143,-0.10106845178164624],[-0.014824505034313255,-0.1522313788290133],[-0.028367849889262168,-0.012423060646765027],[-0.04597460354885455,-0.166052514234828],[-0.0825926755707852,-0.04982364742023687],[-0.06570447740929147,0.08154255184520202],[0.0038292876944525565,-0.1465436131349096],[-0.02784524484162002,-0.07824409463455652],[0.001270577020913844,0.03153634425255385],[-0.0744840979032033,-0.10134833631992199]],[[-0.02174630758121002,0.04376734561750344],[0.006713366376735618,0.12360721674522344],[-0.11662251366752839,-0.2047330096706159],[0.05282987568077684,0.09306144113918498],[0.02248153360204972,-0.10935367268272465],[0.007005744673448109,0.07332504063432753],[0.000813054856368478,0.1687937629526232],[0.1000844673422667,0.23151395194111624],[0.007300612460313928,-0.07391974175014628],[0.0008860749059156069,0.08329359803694072],[0.04772293623775216,0.023655506119086723],[-0.052368496389681315,0.3310014601880551],[0.10039985875359005,-0.167190118122644],[-0.009142844882490848,-0.0037061508821935947],[-0.04161118002698052,-0.03911797170088321],[0.003195679644462959,-0.2867013762145362],[-0.013536569796113064,0.011389060520743871],[0.0019339033794410173,0.07673228105824421],[0.051207721037326286,-0.15769402700411972],[0.043073876056889934,-0.015565696508197403],[-0.009167142313649923,0.012871449556613204],[0.1496626677984792,-0.10033289839341038],[0.031804473315604515,-0.07855381326483914],[0.13634332715819292,0.22853002210583803],[0.009712210264323961,-0.07474328352126058],[0.061038616229232,-0.11237370703709976],[-0.005714190368847655,0.014298791284950825],[0.0427188621975626,0.0948359047428135]],[[-0.005417941968733681,0.09562950325296926],[0.01014002968906369,0.17076695538201456],[-0.01798434306777185,-0.20496911277291885],[-0.007891884767567615,-0.09520566490661755],[0.02709314521463743,-0.0674249088580873],[0.00032871559792527845,0.1689043155463442],[0.01750829934000176,0.19170845386880553],[-0.034723812467519995,0.1764184712250103],[0.0008752215027059018,-0.060378409783993864],[0.01884490085814115,0.046484266307827704],[-0.038272615066244145,-0.08487191356537291],[-0.039136574567869245,0.21149912202511012],[-0.03076113902027469,-0.14591266096722064],[-0.016679012443061716,0.046229491503453235],[0.04680269155003878,0.12584193403794236],[0.008966726282432775,-0.21569524994730005],[0.02433099221113701,-0.22875178360069948],[-0.026328301958485803,0.03923988947908969],[-0.015420256403234928,-0.0918107160296582],[0.002556754900129146,0.1648669226678825],[-0.03835298148767865,0.1069091352601089],[-0.19981172370574798,0.03676289006074037],[0.03682918378169492,-0.1317927979102655],[-0.11656489852983738,0.1822696196303958],[0.015052541918775874,-0.044106188216486215],[-0.03661957646465842,-0.1306686167616832],[0.04311775946238217,0.053458620216345364],[0.0009542545584574238,0.2494668625292176]],[[-0.009200183748919137,0.07676637950734996],[-0.04887514276097842,0.1556512343071254],[0.026257561656329077,-0.2041281787227652],[-0.016857259547313538,-0.08032533365479205],[-0.010306837066726431,-0.07334405211164956],[-0.0029031850991715884,0.2457642971575898],[-0.004171752471638669,0.20234664031173466],[-0.04518795907128304,0.061494183084732944],[-0.0714072743695933,-0.08190704119078995],[-0.03959667802571368,0.017568008516705577],[-0.003428879975100799,-0.07234449329466118],[0.04782100145776359,0.08725721678270817],[-0.008478845680085606,-0.13167232892283398],[-0.03542581549886357,0.08563427301247455],[-0.000803042535277615,0.13213351519833919],[-0.014221803190265387,0.07907390881646718],[-0.06093604431986802,-0.37530555775481145],[0.030106680943076808,0.024996242649351158],[0.046567213821188475,0.006354008015786546],[-0.027075372143741117,0.16317355492407884],[0.03917189650477612,0.04338922702807453],[0.18139774706180073,0.11085026486058129],[-0.09242108614046697,-0.12511673324674474],[0.03163481557369418,-0.08521027865326629],[-0.004408268225541482,-0.018996432356027257],[0.026583370354779725,-0.11775988414645139],[-0.08175753928588785,0.1044288270966341],[-0.011930733911507892,0.17521518446728476]],[[0.023844717166091437,0.02563605358251969],[-0.016758600350746215,0.1281351477841436],[0.00484278340755325,-0.175615684153837],[-0.017469373255934322,-0.031632724233800584],[0.0075060740753668635,0.020558612637591425],[0.005564105489850819,0.35323492127433187],[-0.022454432786395657,0.19541354903898805],[0.04179985341352404,-0.08061470483478664],[0.09449518987806096,0.0013457820599258714],[0.04481125478829462,-0.03967375188242535],[-0.033363289421865415,-0.08720826292632637],[-0.033436065124735403,0.027111728648720676],[0.01063487603582677,-0.06251712052262103],[0.05392015133855028,0.08137357679889706],[-0.039287737714661784,0.10496572587253636],[0.024884356060476932,0.31904520523505975],[0.0032562251012717702,-0.2942938628531165],[0.028113205280470656,0.003246485441581012],[-0.1318189077531098,0.02661829386008505],[0.035527709756383224,0.006367857400198174],[-0.03620626557898216,-0.07738520253447179],[-0.08818672623642097,0.11698197487738247],[0.07687483103783856,-0.004656757094567203],[-0.020742984361252607,-0.19038598790865707],[-0.004056774174400396,0.04754609818957924],[-0.009894907918547123,0.005932408206077972],[0.10183709990724249,0.03111766498617811],[0.039383481608185944,0.07843850001701284]],[[0.003824730550171324,0.03260579948783608],[-0.005615125367883688,0.010701338169683505],[0.01292210909685817,-0.11093964666675649],[-0.0007931295289248685,-0.13127000249034665],[-0.0069227973120420585,0.16802386341619696],[-0.042885176735361616,0.29001993902446144],[0.03652232122866992,0.215440725582879],[-0.007721675551159343,-0.14343973041109867],[-0.09599975774534646,0.04653384610247733],[-0.05395793859191066,-0.06200085979921037],[0.0020953348358999937,-0.1042216718174998],[-0.005583701253383184,-0.015597836656403335],[-0.04174693620259973,0.031453379366164644],[-0.0041709535394484415,0.03744121254251147],[0.05485058584605498,-0.030422385899951963],[-0.00830654939390331,0.29230433665169164],[-0.011888820004875896,-0.12484456181932627],[-0.0012127280836408093,-0.020465893476850936],[0.10045257344873443,-0.035310002839482824],[-0.03174813918817805,-0.13796823012771567],[-0.013652771449377281,-0.2749912649721829],[0.010490123685348407,0.12043454537569216],[-0.025994863392655297,0.138847499505827],[0.013727899886477856,-0.144029271783104],[0.02629629589109491,0.11227508377866703],[-0.07564065595028362,0.15846902847060992],[-0.15560011772756505,-0.10921348072332726],[-0.038203915462263795,0.032388098548501304]],[[0.05273909790300391,0.09883110216603394],[-0.00854817524084353,-0.03843205788718201],[0.01362067011378192,-0.03275463944969334],[0.012228969908263065,-0.1990990216402551],[0.01072933772490018,0.2534905005827149],[0.018432024895756034,-0.06548746395279453],[0.008306668997227944,0.19084999475430406],[-0.017817517130904983,-0.210773966985132],[0.13949371081620965,-0.03256653333169623],[0.036818186338486575,-0.16607671555082013],[-0.00010568634981236095,-0.10043036816983247],[0.01893508563198316,-0.036544904522765605],[-0.013378225423732026,0.054163872825803636],[-0.004907803972384767,0.054107824297823424],[-0.0434321813132019,-0.0927295611631408],[-0.007191366571204437,0.21823155114292014],[0.009656573219686073,0.016872898567045436],[0.012318808432438674,-0.03488551885286721],[0.011495380966161624,-0.08224793111330381],[0.016719918969022616,-0.08963018737343936],[0.042275257065195616,-0.2633950573181094],[0.03024604161034285,0.08901622198696503],[-0.041962245040360696,0.2149724851933613],[0.02694420989984028,-0.021778043890485658],[0.013587839712608853,0.18636458727914074],[0.09807957346079989,0.1781509733569642],[0.20278599325830107,-0.1633692196534209],[-0.015912351041455716,0.06626694647849893]],[[-0.13207639163654358,0.128097112670254],[0.04893624565601146,-0.09740839456215121],[-8.61327456444922e-05,0.0329772010484267],[0.010377767373496053,-0.20473395642944706],[-0.025215123059377946,0.3002590811856556],[-0.03615331905050402,-0.3136474450572432],[-0.05165118086935582,0.026494214350189657],[0.005635825841897247,-0.2677160719658625],[-0.10833690053009014,0.015466964590689565],[0.015771209215955026,-0.16077172112939053],[-0.019290043979392865,0.012741660196447261],[0.020068305228482117,-0.044060589993142614],[0.0560588403224106,0.06627418893200572],[0.09170964941296582,0.03371460916591976],[0.019701033052531923,-0.16049212438215799],[-0.007084450874769111,0.12077432974222563],[0.017148746490327882,0.028795260734412766],[0.016121271770248982,-0.07220073133493901],[-0.02964445136675165,-0.09098697514235041],[0.05281368411947482,0.017641799175495715],[-0.060948879845436364,-0.03158636422175309],[-0.028344685307491603,0.08660794576109343],[0.030530211974207355,0.17713490092469608],[-0.02625949640977702,-0.041294803978394155],[0.013644359892227344,0.24372138289967288],[-0.051353139567330855,0.01598570165542202],[-0.11448277844153744,-0.06441261389026522],[0.0710743694534953,0.05585811166461141]],[[0.2055800419461804,-0.04332213941258024],[-0.025590422968544007,-0.21227115990393133],[0.02326622921291024,0.011623592457856415],[-0.023023980895213618,-0.13747239223277585],[-0.03791499668886925,0.20672729959491676],[0.009793111489865192,-0.27723290325732436],[0.029651623579150826,-0.1679470049637679],[0.02822518602665675,-0.2258740257466344],[0.14190118123569312,0.09338946464522468],[-0.014266862242521217,-0.06059210703623152],[0.02738424393280391,0.11753226340694557],[0.012078726828024647,-0.09939459103562921],[-0.011418807212042885,0.0394079052961268],[-0.22915740100309692,-0.022446965256283917],[0.025665176849832837,-0.09322618860412439],[0.001318652893881372,0.08677117502148646],[-0.022278246440535134,0.09747205100927979],[-0.03684210538815644,-0.15100156645764581],[-0.0025491495181693257,-0.025692006222883992],[-0.05530917810290293,0.06291638028195312],[0.06562120962137667,0.1939576969162659],[-0.023674232567698437,0.08702271969071038],[-0.002716901722600225,0.09177434409586649],[-0.01868935887469973,-0.03626174377962936],[0.010863276651566993,0.2891382466098273],[0.00228797047930345,-0.09732174739080181],[-0.02909827870607788,0.021341581839639696],[-0.009172783622987827,-0.008149072899190535]],[[-0.1451965458968718,-0.19292687625727337],[-0.022999379967260234,-0.29431081255037067],[-0.0014175434076486386,0.018452677228886032],[-0.017103018080070427,-0.09271335948795634],[0.09459830480001874,-0.008120559983859311],[0.010685746652036882,-0.21411001495452991],[0.011792963731869787,-0.2238180638781114],[-0.0025180709261215296,-0.05983600895268262],[-0.06378963851640948,0.09939677531253953],[0.05298982180659973,0.10704162777981344],[0.0180630262824318,0.06814983394005807],[-0.020689684417307362,-0.13216494924753996],[-0.027733217889236095,0.06693919085559413],[0.23030510019545583,-0.03358220080107496],[-0.054034445699742986,0.02527064752942901],[0.0021007274759830574,0.07462413814384856],[0.0029576208063073943,0.1828499941325324],[-0.0017035657048163604,-0.18208472528178668],[0.032187247286193814,0.04385087933691897],[-0.011197401667198032,0.08065181863539775],[0.029191737990499143,0.17243707703006708],[-0.016426498127837693,0.011048506445336202],[-0.0702415974258975,-0.036217846622238745],[0.04794392877352977,-0.026617714380362322],[-0.05351374724853844,0.2405600645180646],[0.04008997295548362,-0.06574533317528626],[0.05161527908338759,0.006264587405172397],[-0.020458459340180285,-0.1405083257890358]],[[0.06351841028539068,-0.15536768961093742],[0.09294160222849589,-0.32151924825400796],[-0.011275692235095912,0.1442760221902351],[0.023320725778754808,-0.043957562153253346],[-0.11796837954595907,-0.12472259649692725],[-0.010621968917065008,-0.16368615882314602],[-0.026045434187562586,-0.24314586494471097],[-0.06216643300972843,0.0975548008471997],[0.02469499039803071,0.07405836320437353],[0.018764486016998712,0.1997609284696016],[-0.005111585719816506,-0.059736204593749974],[0.012420668001291648,-0.1937969855993465],[0.013765058605983954,0.12296540213163774],[-0.14933737054152135,-0.0706258147948334],[0.04361564963077048,0.144759469532508],[-0.010153616060112022,0.060637949962433615],[0.0118214937713505,0.1903350192883734],[0.0627225637551832,-0.16573052390703222],[-0.05502452812928618,0.11909600114767857],[0.0445602842660427,0.030002718800618115],[-0.02223474577468394,0.1139403690309566],[0.052168112065229796,-0.033758933253014774],[0.06719811195591055,-0.08644386509914938],[-0.025528401961016897,0.03231339097229057],[0.07818176763249257,-0.02106265748315434],[-0.007190373385232223,0.014957577346565875],[-0.033594489122763145,-0.009611101985624378],[0.014281461962109722,-0.1704320563645403]],[[0.02198692660574168,-0.041256849026765324],[-0.00840117371485955,-0.10626400527598016],[0.05659809687843593,0.27342818220072074],[-0.045781447124391667,0.07270819887240178],[0.05815023562185551,-0.14686790934552904],[0.0027909280896322502,-0.11211090875671695],[0.010774422211395603,-0.22018889586476909],[0.050801643466631,0.11154392435543613],[-0.010314552376982214,0.003246198421119564],[-0.013905287973937582,0.13873350403190735],[0.04871144153013345,-0.10818992547120865],[0.01981174230334284,-0.23685249107838302],[0.0010380632702031603,0.1935840983527982],[0.060875261456639976,-0.08114539494919508],[0.0018761489278886238,0.12040506085391904],[0.010234086098664621,-0.05260720331516493],[-0.0362058816352015,0.17706603379600214],[-0.18363593150169719,-0.06475334765050096],[0.0065394312509855,0.16519126729184483],[-0.07902049003139426,0.03930626002510639],[0.022509851045006884,0.03668022488450395],[-0.009040505145478142,-0.07785332355714511],[-0.024628337491303144,-0.08182618806193451],[-0.020267119926904737,0.036844062753237684],[-0.14123521001539005,-0.27660481999612035],[-0.009392552231070909,0.11162817569131209],[0.01862073471124182,0.021124194273241387],[0.0023334543588014473,-0.15402970245938657]],[[-0.025222377052467652,-0.0007692185964656663],[-0.0035180725266521383,0.1191616628821769],[-0.018976543726585585,0.32154084607821204],[-0.017736904449101858,0.1984757746699228],[0.001561283335568318,-0.19829516643469516],[0.021199541600604315,-0.05462825744539587],[-0.04468154741208421,-0.19352795762226788],[-0.015417272768086477,0.06449202277198933],[0.017617594255802914,-0.026171551734856656],[0.014484781088106904,-0.03479638118521879],[-0.09448948747095727,0.019440398787819398],[-0.01078379317959755,-0.22220360875730796],[-0.0905424565811253,0.11248156046144735],[-0.029493033826312572,-0.06420684004922086],[-0.0029865716621361835,-0.007439682193727622],[0.006812476753507321,-0.1729759394859941],[-6.0921634279605883e-05,0.08380958613632628],[0.22185328427922446,0.19628779985872624],[-0.0038724836293209447,0.15017514464029552],[0.06333863989350397,-0.0633684709006033],[0.008726264253932784,0.02467278366657191],[0.005257053880207648,-0.12065650158633802],[0.027640131553047113,-0.008619142955130233],[0.021845855589959776,0.023923640667492668],[0.05972689769640749,-0.30643730835898086],[-0.014673895221848922,0.08788048805339677],[-0.009340850692069703,0.04486869508979243],[-0.05420382744382309,-0.09472438917611775]]]},{"Name":"Lncosh","Size":28},{"Inputs":28,"Name":"Sum","Outputs":1}],"Name":"FFNN"}
